//Numpy array shape [64]
//Min -1.600037813187
//Max 1.602474212646
//Number of zeros 0

#ifndef B21_H_
#define B21_H_

#ifndef __SYNTHESIS__
bn_dense_1_bias_t b21[64];
#else
bn_dense_1_bias_t b21[64] = {0.9484518766, 1.6024742126, -0.2541277111, -0.5274826884, -0.5368453264, 0.8360922933, 0.2403279841, -0.4219890535, 0.9634522796, -0.5090267658, 0.1040196642, -0.5645048022, -0.1851408631, -0.6506419778, 0.8865937591, 1.3318169117, -0.8819514513, -0.4068719149, 0.0876698270, -0.4776839614, -0.5152800679, -0.4451461434, 0.4097268283, 0.4448146224, -0.6447101831, -0.2627787590, -0.1924969405, 0.7329816818, -0.2664759755, -0.0630808324, -0.5766882896, -0.3256477714, 0.3884853721, -1.0019553900, -0.9063515067, 0.2518140674, -0.7429009676, 0.3119178116, -0.4624440074, 1.1461282969, 0.6063284278, -0.2009210587, -0.5880515575, 1.0301165581, 0.3373883069, -0.0463704057, -0.8708538413, -0.6065297127, 1.0905395746, 0.5595939159, 0.1456268132, -0.2579942346, 0.7301692963, 0.2306952029, 0.2279698253, -0.2943474650, -1.6000378132, 0.3202096820, -0.4412886202, -0.3110508025, -0.3019289672, -0.1783252060, -0.7121909857, 0.6268732548};
#endif

#endif
