//Numpy array shape [64, 10]
//Min -0.982367873192
//Max 0.796265363693
//Number of zeros 0

#ifndef W23_H_
#define W23_H_

#ifndef __SYNTHESIS__
output_dense_weight_t w23[640];
#else
output_dense_weight_t w23[640] = {0.1878820807, 0.2223199904, -0.1440170556, -0.5967071056, -0.3465566039, -0.3783749640, -0.3858949542, 0.6039800048, 0.2658870518, -0.2328276783, -0.4906195402, -0.2694076598, -0.4121579230, 0.2036094815, -0.4666010439, 0.2485502660, 0.6164506078, -0.3379447758, 0.6827396154, 0.5524874926, -0.5877526402, 0.4727909863, -0.4285058677, 0.4900574982, 0.2378712445, 0.3592790663, -0.5092362761, -0.0838947445, -0.4846515357, -0.2768790424, -0.0802788585, -0.3360267580, 0.4400693774, -0.1640422046, -0.3948644400, -0.4261733890, -0.0901977122, -0.3538807929, 0.3978618681, 0.4920469224, -0.5470554233, 0.4280721247, 0.2566111982, -0.5748496652, -0.2860414386, -0.3584330678, -0.5414775014, 0.5111814737, 0.5028562546, 0.0204567760, -0.3101590574, -0.2291063964, 0.5270531774, 0.7024798393, -0.3885450363, 0.0116125066, -0.7175258994, -0.3893131912, 0.7962653637, 0.1894084662, -0.5845677257, 0.1550621986, 0.4650223553, 0.3049821854, 0.1957713664, -0.4383675158, -0.2257338911, -0.0553451777, -0.6817638278, 0.2174721509, 0.3643636405, 0.3815493584, -0.0683489218, -0.2057686895, -0.4395740926, 0.2983456254, 0.4417324662, -0.4996460676, -0.6495873928, 0.0051120031, -0.6686635613, -0.5153325200, -0.0208465438, 0.3926247060, 0.0931425616, 0.4190307558, -0.0348667987, -0.6754608750, 0.3909071088, -0.4479831457, 0.3546378613, 0.2674196959, 0.3090161085, -0.5352964401, -0.2979530394, 0.5310662985, 0.6901113987, -0.3160720170, -0.7564791441, -0.2764808238, -0.5376304984, -0.3865548372, -0.3973525465, 0.0894667879, -0.1950279474, 0.4985429049, 0.4061319232, 0.5953488350, -0.2224977762, 0.1813669950, 0.4907122850, -0.2894813418, 0.2061386555, 0.4246619344, -0.5779491663, -0.0548521467, -0.7436735630, 0.3984043598, 0.4187209606, 0.0779901072, 0.6308667064, -0.3993432224, 0.3310142159, -0.0379574001, -0.2447341233, -0.4561226070, 0.2650092840, -0.6663610935, 0.1119065434, -0.0436339900, -0.3427678049, 0.3897152841, -0.1347753406, 0.4691118300, -0.3105344176, 0.7646505237, -0.4724351764, 0.3906610310, -0.5289703608, 0.1205267161, 0.1514757276, -0.6847144961, -0.7139278650, -0.2655016184, -0.0437686816, -0.2495404184, 0.7176508307, -0.6468912959, 0.3885065019, 0.2375524640, -0.5767071843, 0.5097261071, -0.1136090532, 0.4140593708, 0.3933115900, -0.0721953884, -0.2070216984, -0.3284606338, -0.0423780009, 0.2524521649, -0.2298170328, -0.4745866060, 0.2432340831, -0.7794419527, 0.6040659547, 0.4462977052, -0.2412128150, 0.0907723680, -0.3653554022, 0.3579621315, -0.5587887168, 0.1042379066, 0.5973579288, 0.3408130705, -0.3889838159, -0.3237309456, -0.1712666452, 0.3081876636, -0.4175553620, -0.3693118989, 0.6432688236, 0.4074043930, 0.4550687969, 0.2623490393, 0.1530486792, -0.1330004036, -0.1795258522, -0.5414516926, 0.1177393049, -0.2437617928, -0.2185757011, 0.3469638824, 0.5567250848, -0.2736831903, 0.4181153178, 0.3319914043, -0.1258925945, -0.8153151870, -0.4974222183, -0.5155902505, 0.6451804042, -0.2519877851, -0.4092624485, -0.5321944356, -0.4415090084, -0.1163577661, -0.4664124846, 0.2244519889, -0.3723953962, 0.6644095182, -0.4179273844, 0.3595921099, 0.4709345996, -0.5006651878, -0.2359039187, -0.1790573746, 0.0896494612, 0.4718272388, -0.5589628220, -0.3148335516, -0.2530427277, 0.5816255808, -0.4660283029, 0.0681640506, -0.1439842135, 0.3318978846, -0.6062288880, -0.2729427218, -0.3196012378, 0.4117831290, -0.4659173787, 0.3106541932, -0.4153979123, -0.5477601290, 0.5378207564, -0.1766304970, 0.3592072129, -0.1294820160, 0.2773976922, 0.1089050844, -0.4412883818, 0.3683275282, -0.3622424304, -0.3650014400, -0.1580626518, -0.4187648296, 0.7665305734, -0.3273672760, 0.0904319286, -0.1726605147, 0.7018295527, -0.1305175424, -0.2161903381, -0.1724561751, -0.2647556663, -0.5018820167, -0.4015963078, -0.6389001608, -0.1213829666, 0.5887473226, -0.4054647088, -0.5052443743, -0.0270353407, 0.0188679416, 0.3097775280, -0.1255014092, -0.2451288104, -0.2048899829, 0.6773602366, 0.4171202779, -0.0108144898, 0.5667278767, -0.2086170018, 0.1991431564, -0.1164191142, -0.2333733141, 0.3353334963, -0.7468686104, 0.1303328276, -0.2341612428, 0.7331905961, -0.0939369053, -0.4806938767, -0.4213327169, 0.7292925119, -0.5028010011, 0.4858958423, -0.1337900907, -0.1248179451, -0.4536408186, 0.1634875536, -0.4178579152, 0.2015518397, -0.2047560364, 0.5604950190, -0.3043751121, -0.2779313028, -0.6357576847, -0.4720476270, 0.6018344760, 0.4427504539, 0.5753988028, -0.2061957121, -0.0354455672, -0.8001961112, 0.0792348981, -0.3419115841, 0.4187407196, -0.3745649755, 0.1914222687, -0.4760873914, 0.2376420796, 0.3965492845, -0.1310208142, -0.0065924549, -0.3969094455, 0.3519103229, 0.3051514924, -0.5448626280, -0.6201019287, 0.6566340923, -0.0802610368, 0.0609116703, 0.3044269979, -0.4878348708, -0.2922570407, -0.2923303545, 0.2764198780, -0.1087820902, -0.6497297287, -0.5339276791, 0.2066482157, 0.5185741186, -0.1550111771, -0.4074946940, -0.1291086227, -0.5150737762, 0.5531386137, -0.1066026911, -0.3523609936, -0.1096618101, 0.4031423926, -0.1599443257, -0.5063380599, 0.5734425187, -0.4246777892, -0.1476031691, -0.4612342715, -0.0615222380, -0.4502740502, -0.4001599848, -0.1955309212, -0.0715379938, 0.3277634382, -0.6952808499, 0.7834349275, -0.4859980047, 0.0669346973, -0.5027658343, 0.5161028504, 0.6758490801, 0.6058139205, 0.1518310010, -0.2250710279, -0.5969290733, 0.1904268116, -0.0722948909, -0.2073554695, -0.4284432232, -0.4352501631, -0.0836480483, -0.2660759687, 0.4174841046, -0.5488214493, 0.0700822398, -0.1707368195, 0.5004347563, 0.5033714771, 0.1534250379, -0.6287649274, -0.3408463299, -0.2648002803, -0.1683703959, 0.3951335251, 0.2865425050, 0.3441525996, -0.4558151960, 0.4121347964, 0.2583080530, -0.2368863672, -0.1737380177, -0.2140094489, -0.4611417949, -0.4464988708, 0.5957777500, 0.5113892555, 0.1721165627, -0.4547388256, 0.5201948285, -0.2157929391, -0.0230758972, -0.5073499084, -0.5714697838, 0.5361405611, -0.5354414582, 0.4054180980, 0.1792350858, -0.6182885170, 0.5128668547, 0.3135727644, -0.2403270155, -0.2678548396, -0.1097673550, 0.5545956492, -0.3482487798, 0.7413422465, 0.5156717896, 0.0480326004, -0.8093118072, -0.4218385816, 0.4086736739, 0.4895609021, -0.5044658184, -0.2579343319, 0.1222281456, -0.6009028554, -0.1122586802, -0.1138361543, 0.6153996587, -0.0745907351, -0.5455728769, -0.3602686822, 0.3933823109, 0.0112944366, 0.0951921269, -0.5225441456, -0.2244382501, 0.1161266863, 0.4337741137, 0.5257495642, 0.0351051725, -0.3138150573, 0.2855236828, -0.6872115135, -0.5520119667, 0.6103787422, 0.6161229610, -0.1268416047, -0.2330930382, 0.2811779976, -0.4354149699, 0.3387211859, -0.4603893757, 0.3943336904, -0.0637260973, 0.1248274520, -0.6190047860, 0.3300817907, 0.1816511154, -0.1888711751, -0.5642513037, 0.2443440557, -0.4897195101, 0.0600453094, 0.6317124963, -0.3042366207, -0.5544263721, 0.7853558660, -0.2657770514, 0.2174970508, 0.5589722395, 0.0418192744, -0.2114029080, -0.0897231400, 0.4806378186, -0.5051854849, -0.4408315122, 0.4114342630, -0.2164454013, -0.1839683354, -0.5799540877, -0.0833488107, -0.2084684074, -0.0956740603, 0.4635004103, 0.2095602602, 0.4322735965, -0.2569929361, -0.3270027339, -0.5899817944, 0.1279913932, 0.1452064514, -0.2723194063, -0.5543906093, 0.0280945897, -0.9823678732, 0.5158848166, 0.6771669984, -0.0803404152, -0.2708909810, -0.3978948891, -0.1783569455, 0.0097321132, 0.3430929184, -0.1427894682, 0.7617453337, -0.3877177835, -0.2601545751, -0.6696798801, 0.0946070924, 0.2324225157, 0.0097166561, -0.0000328244, 0.4866950810, -0.6633234620, -0.7490394711, 0.4456009567, 0.0291653965, 0.0623250753, -0.1119609028, 0.6333230734, -0.0322390869, -0.5052338243, 0.5940237641, -0.1688727289, -0.1733235717, -0.1676721722, -0.6150196195, -0.1982138902, -0.1893462986, 0.2326620668, -0.3714983165, 0.4400913715, 0.1690354198, -0.4233081043, -0.5663048625, -0.4738437235, 0.4092933536, -0.4710396528, 0.1158714369, -0.3677188754, 0.0868380666, -0.0749133006, 0.3859175146, 0.5030539036, -0.6677975655, 0.0199171156, 0.6202208996, 0.3260024786, -0.5183531642, -0.0976774395, 0.2073297501, 0.6953719258, 0.2005595416, -0.4165223837, 0.4921379387, -0.4366069138, 0.2841767073, -0.5623141527, -0.1757896841, 0.2031011283, -0.5532410145, 0.2776274383, 0.7379130721, -0.2003608048, -0.5585016608, -0.1576991677, 0.6948237419, -0.6935679913, -0.1672713608, -0.5046920776, -0.2065572888, 0.5122123957, 0.3603226542, 0.2337325960, -0.3568440378, -0.3583558202, -0.3974599838, 0.1752670109, -0.4432229996, 0.1274608821, 0.3317215443, -0.3802370727, -0.5192139149, -0.1875890791, 0.0486294590, -0.1197458282, -0.4575469196, 0.6131190062, -0.6888715625, 0.2626929283, -0.5227465034, 0.4781492054, -0.4032018483, 0.4043173194, -0.3791109025, -0.0053185024, -0.1325626224, -0.1615155190, 0.4565355182, -0.2911735475, -0.1249554902, -0.2052253634, 0.4858870804, -0.7521036863, 0.5024432540, 0.6596091390, 0.0180873498, 0.5924658179, -0.4141609967, 0.2153253853, 0.0256428029, -0.6678575277, -0.4106021523, 0.5621559024, -0.7228175402, -0.4606882036, -0.0811497495, -0.2883011103, 0.3490763605, -0.3010226786, -0.2487624735, -0.2735580802, 0.2971176207, 0.6135221720, 0.2550001144, 0.1106175706, -0.6026845574, -0.8560322523, -0.5045752525, 0.2284056395, 0.5863847733, -0.3648101985, -0.3548708856, 0.6162036657, -0.4342686832, -0.5203496814, -0.6402202845, -0.3918411732, 0.4914079010};
#endif

#endif
